<?xml version="1.0"?>
<opencv_storage>
<cascade>
  <stageType>BOOST</stageType>
  <featureType>HAAR</featureType>
  <height>42</height>
  <width>42</width>
  <stageParams>
    <boostType>GAB</boostType>
    <minHitRate>9.9500000476837158e-01</minHitRate>
    <maxFalseAlarm>5.0000000000000000e-01</maxFalseAlarm>
    <weightTrimRate>9.4999999999999996e-01</weightTrimRate>
    <maxDepth>1</maxDepth>
    <maxWeakCount>100</maxWeakCount></stageParams>
  <featureParams>
    <maxCatCount>0</maxCatCount>
    <featSize>1</featSize>
    <mode>BASIC</mode></featureParams>
  <stageNum>7</stageNum>
  <stages>
    <!-- stage 0 -->
    <_>
      <maxWeakCount>1</maxWeakCount>
      <stageThreshold>1.</stageThreshold>
      <weakClassifiers>
        <_>
          <internalNodes>
            0 -1 1 8.8549137115478516e-02</internalNodes>
          <leafValues>
            -1. 1.</leafValues></_></weakClassifiers></_>
    <!-- stage 1 -->
    <_>
      <maxWeakCount>1</maxWeakCount>
      <stageThreshold>1.</stageThreshold>
      <weakClassifiers>
        <_>
          <internalNodes>
            0 -1 3 1.0777507722377777e-01</internalNodes>
          <leafValues>
            -1. 1.</leafValues></_></weakClassifiers></_>
    <!-- stage 2 -->
    <_>
      <maxWeakCount>2</maxWeakCount>
      <stageThreshold>-1.5479725599288940e-01</stageThreshold>
      <weakClassifiers>
        <_>
          <internalNodes>
            0 -1 4 -6.6742062568664551e-02</internalNodes>
          <leafValues>
            8.7999999523162842e-01 -9.1666668653488159e-01</leafValues></_>
        <_>
          <internalNodes>
            0 -1 11 2.3826599121093750e-02</internalNodes>
          <leafValues>
            -9.2865961790084839e-01 7.6186943054199219e-01</leafValues></_></weakClassifiers></_>
    <!-- stage 3 -->
    <_>
      <maxWeakCount>2</maxWeakCount>
      <stageThreshold>-4.1423700749874115e-02</stageThreshold>
      <weakClassifiers>
        <_>
          <internalNodes>
            0 -1 6 4.2975950986146927e-02</internalNodes>
          <leafValues>
            -8.6666667461395264e-01 7.3584908246994019e-01</leafValues></_>
        <_>
          <internalNodes>
            0 -1 5 9.2024970799684525e-03</internalNodes>
          <leafValues>
            8.7556254863739014e-01 -7.7727276086807251e-01</leafValues></_></weakClassifiers></_>
    <!-- stage 4 -->
    <_>
      <maxWeakCount>2</maxWeakCount>
      <stageThreshold>2.7068506926298141e-02</stageThreshold>
      <weakClassifiers>
        <_>
          <internalNodes>
            0 -1 2 8.4651693701744080e-02</internalNodes>
          <leafValues>
            -8.3999997377395630e-01 8.7500000000000000e-01</leafValues></_>
        <_>
          <internalNodes>
            0 -1 7 -5.9342995285987854e-02</internalNodes>
          <leafValues>
            8.7516862154006958e-01 -8.4793150424957275e-01</leafValues></_></weakClassifiers></_>
    <!-- stage 5 -->
    <_>
      <maxWeakCount>2</maxWeakCount>
      <stageThreshold>9.2678919434547424e-02</stageThreshold>
      <weakClassifiers>
        <_>
          <internalNodes>
            0 -1 10 -6.1987027525901794e-02</internalNodes>
          <leafValues>
            9.5454543828964233e-01 -7.7777779102325439e-01</leafValues></_>
        <_>
          <internalNodes>
            0 -1 9 6.3984314911067486e-03</internalNodes>
          <leafValues>
            -7.6209777593612671e-01 8.7045669555664063e-01</leafValues></_></weakClassifiers></_>
    <!-- stage 6 -->
    <_>
      <maxWeakCount>2</maxWeakCount>
      <stageThreshold>-4.5447543263435364e-02</stageThreshold>
      <weakClassifiers>
        <_>
          <internalNodes>
            0 -1 0 6.3230745494365692e-02</internalNodes>
          <leafValues>
            -7.3076921701431274e-01 8.2608693838119507e-01</leafValues></_>
        <_>
          <internalNodes>
            0 -1 8 -5.4014404304325581e-04</internalNodes>
          <leafValues>
            -8.7153452634811401e-01 7.0950698852539063e-01</leafValues></_></weakClassifiers></_></stages>
  <features>
    <_>
      <rects>
        <_>
          0 0 24 31 -1.</_>
        <_>
          8 0 8 31 3.</_></rects>
      <tilted>0</tilted></_>
    <_>
      <rects>
        <_>
          0 0 42 31 -1.</_>
        <_>
          14 0 14 31 3.</_></rects>
      <tilted>0</tilted></_>
    <_>
      <rects>
        <_>
          3 3 15 39 -1.</_>
        <_>
          3 16 15 13 3.</_></rects>
      <tilted>0</tilted></_>
    <_>
      <rects>
        <_>
          3 23 39 17 -1.</_>
        <_>
          16 23 13 17 3.</_></rects>
      <tilted>0</tilted></_>
    <_>
      <rects>
        <_>
          7 32 32 10 -1.</_>
        <_>
          7 37 32 5 2.</_></rects>
      <tilted>0</tilted></_>
    <_>
      <rects>
        <_>
          10 19 24 10 -1.</_>
        <_>
          18 19 8 10 3.</_></rects>
      <tilted>0</tilted></_>
    <_>
      <rects>
        <_>
          10 27 22 15 -1.</_>
        <_>
          10 32 22 5 3.</_></rects>
      <tilted>0</tilted></_>
    <_>
      <rects>
        <_>
          11 34 25 8 -1.</_>
        <_>
          11 38 25 4 2.</_></rects>
      <tilted>0</tilted></_>
    <_>
      <rects>
        <_>
          17 16 8 10 -1.</_>
        <_>
          17 16 4 5 2.</_>
        <_>
          21 21 4 5 2.</_></rects>
      <tilted>0</tilted></_>
    <_>
      <rects>
        <_>
          26 0 3 30 -1.</_>
        <_>
          26 10 3 10 3.</_></rects>
      <tilted>0</tilted></_>
    <_>
      <rects>
        <_>
          28 23 14 15 -1.</_>
        <_>
          35 23 7 15 2.</_></rects>
      <tilted>0</tilted></_>
    <_>
      <rects>
        <_>
          31 0 7 24 -1.</_>
        <_>
          31 12 7 12 2.</_></rects>
      <tilted>0</tilted></_></features></cascade>
</opencv_storage>
